-0.11185172774252311 -0.07595177315214044 -0.08160930292453832 -0.08696548519796972 -0.028077836365797283 -0.0957347540372644 -0.10357756097027915 -0.1089261757572848 -0.42852661583364593 0.15776775957526468 -0.05239737466289479 0.19189884989911188 -0.4477258957435579 -0.11828457987117989 -0.0577926003118111 0.15607202374354576 -0.2624234100869884 -0.10678549597537237 -0.23587161438574167 0.21507988305622716 -0.06824208886697358 -0.07520363705061468 -0.018803463086199637 -0.057408414257938585 -0.13852453136915688 -0.10589650431194775 0.03076958027300233 -0.10534281475564516 -0.2705700367470014 0.22568841144429475 -0.1279044544153451 -0.09233970880672136 -0.11042749019888184 0.24513908233315793 -0.28537091285396876 -0.24245232663682909 -0.6320970746512 -0.06890071077293142 0.058643103616857324 0.0035488905369722022 -0.6033285181315808 -0.23048187164176176 -0.06659404541895453 -0.09449678787497104 -0.11725090956647624 -0.07414574244856857 -0.15915218859896788 -0.07650947968572142 0.07058946607416418
0.25332896934514504 0.215562120219546 0.24543624257514707 0.22288195592312182 0.2341507536560872 0.24493086093020566 0.18434075145726794 0.19987701609804262 0.06300057312074242 0.131378465671461 -0.3143388767791274 0.1493845643533995 -6.525095500623402E-4 0.16992196905165358 0.23997420299463915 0.11232808545665195 -0.17066293260534482 0.23827384718940176 -0.13238974474056125 0.15734826444897662 0.23353524289747143 0.19433510938795995 -0.2800571293143091 0.1853378467485736 0.24036505335332353 0.1801003161551631 -0.2609406250262009 0.2262604337496832 -0.20114530613437298 0.2236315318260947 0.22965440445579668 0.21376423718461118 0.24097498666729128 0.12434213537005473 -0.17125768083871845 -0.18284106664904426 -0.39546809191872234 -0.3184798374908756 -0.2982304903767539 -0.27039012162107934 -0.46789338905014305 -0.207918555171817 0.2339715869703683 0.21487146086196873 0.24077472018233043 0.23749037174618587 0.20965251090522238 0.2235905373186943 0.0243231240410293
0.07366974159764078 0.059147490350614014 0.03637892488168047 0.06483479682587502 0.07497196731807998 0.10905934068476125 0.07599599351799215 0.08566935647632122 0.3037114662571992 0.3306893400474815 -0.11988310481642575 0.3167673569640054 0.37538424095757866 0.10692983581631128 0.09724000301953364 0.30847263878190173 -0.3035302861743123 0.053168676434209555 -0.36192386254929565 0.3068375728248528 0.06075156320944815 0.09100801071754876 -0.11995590437223738 0.09962949689636243 0.12142355731981713 0.045438651811242514 -0.0812088504285213 0.08495699112802288 -0.326639235459308 0.31276883470737643 0.06458867277558582 0.10310351067023978 0.02723881585291533 0.295236947062251 -0.3347844025173182 -0.2848499307912086 -0.09078230692196039 -0.13317033290296873 -0.09540302347646733 -0.10685975411186217 -0.09372065485230897 -0.2999517333677675 0.07433167193947852 0.10250079328068662 0.0646188864644974 0.09010907375271096 0.06926892431161702 0.0991327838720365 0.056072693215689196
0.11240358774689947 0.14443628032849506 0.08382570229242683 0.10718760028898497 0.14756147831684105 0.1048636837918564 0.147234573303226 0.14441099586630918 0.2958552624572654 0.24057222631279165 -0.16833073310606694 0.19250286841070857 0.33516942009254974 0.14309869797621658 0.12460567896639192 0.20981273968006595 -0.2509751846000851 0.1515965045979941 -0.2653281836586109 0.19897891611868995 0.11337922004168706 0.0889936378607457 -0.16979645859742173 0.15968486777303476 0.08859759086904649 0.16103910483133252 -0.14617615612606477 0.14219305683307937 -0.2464457224810822 0.2220275250194718 0.10603016842475281 0.13070199526362036 0.14626097158330195 0.2234002577289561 -0.282461156634707 -0.28943013880885865 -0.12959386701857364 -0.1323907104302227 -0.13488296533689717 -0.09870081345344263 -0.11049567372926253 -0.2509687279660611 0.12847004624880526 0.08593174606620403 0.10090603650917554 0.12421782007864994 0.1457201457643289 0.14285981785675916 0.07502362212798348
-0.48562406091488236 -0.5553309005885477 -0.5661463919764465 -0.5198439778526037 -0.4822873917231411 -0.5486317973664459 -0.5055063001749875 -0.577934130773235 -0.20158510384302303 0.1379537240026145 0.049727722075849023 0.13115943190033152 -0.19396079084915885 -0.5284675307654289 -0.5035322913582491 -0.019936651704588214 -0.45700262354493737 -0.5195539194447574 -0.4102519694020855 0.051608200991304504 -0.4710062507519358 -0.6009837553566569 0.0432918402984379 -0.49415012741901476 -0.5699063240525285 -0.6639554197350529 0.19603791637249157 -0.5022620394025323 -0.44119931033629817 -0.05173239771108692 -0.5242370627990542 -0.5272399173474267 -0.5603445934166998 0.02781613666778439 -0.4120553107833475 -0.39073542120761634 -0.006817952328306597 0.03366117365517411 0.1844029795002358 0.15044115757661083 -0.02532935732250303 -0.4100376677286387 -0.5422156793361742 -0.4742777816078722 -0.48699016559176245 -0.5383673923490975 -0.6377376786435477 -0.5270986593304485 0.02678099972511897
-0.051294548960043825 -0.07539174443848086 -0.06263884284265189 -0.0614956547818609 -0.04104667601141734 -0.013218985821252237 -0.017336752713901192 -0.035018965292001415 0.03543574095170291 0.2415304274883339 -0.044207392388132406 0.29559415098172953 0.04908826483378075 -0.018581943856641792 -0.0027088283655170484 0.26628500750811984 -0.3926705417402329 -0.014719476615631772 -0.30723293587708317 0.2592130355301965 0.02505163790580263 -0.0987825295793626 -0.10459247824584515 -0.016830748087558276 -0.08369899674604524 -0.0743831293056587 -0.03452167415458665 -0.05163826687354097 -0.33374048857653527 0.22792083954157985 -0.03279552139709757 -0.05791543144780688 -0.07813074390927109 0.2920217142261549 -0.33177316079332575 -0.30456295118482907 -0.262308136390567 -0.10084425595504624 0.0054940356941721 -0.008119365616803027 -0.3516427573571495 -0.3406091472868556 -0.04836525324708863 -0.05462178791717908 -0.008801472117898317 -0.05131374454791542 -0.09331265485420714 -0.03881919614752659 0.08094094140206302
-0.03657649598428811 -0.04658026199783751 -0.024018241710232226 -0.006314830589298201 0.01988660131892792 -0.0776328321907445 -0.002664849066497428 -0.023941128156626128 0.11663636211559443 0.4056301249787922 -0.1534566188367121 0.3864465504509005 0.15978268349543506 0.03298848889325508 -0.07393609127093943 0.32426016722298134 -0.4915857634066951 -0.02209322118629997 -0.48368729235954827 0.3902651104580641 -0.050988448900853856 0.02771764178863469 -0.20452679262031923 -0.04533731355242963 -0.011459903354983788 -0.07488857530912774 -0.1687824562409081 8.578034479697052E-4 -0.43847596968476144 0.2695721460832526 -0.0015208954282869924 -0.03639148646351824 -0.038864970179683836 0.3592554863400021 -0.41421881744829997 -0.5379351729692071 -0.3301418152409659 -0.23996519144204412 -0.16224305450290152 -0.1548723460803955 -0.31888767364345283 -0.4817914591430567 -0.013157314862645843 0.026979743309439384 -0.004568583774063664 -0.057025794094820295 -0.056402235907109056 -0.07939159670032359 0.07675613886618529
-0.21763362059735175 -0.19856481930411937 -0.1999269299990837 -0.23109414922479612 -0.21308629754848973 -0.17848035916873517 -0.22733764455322802 -0.21727608219147462 0.12209828420519153 0.17296412226594648 0.09285964415012957 0.26031331672800917 0.09173013426737497 -0.2695342562765812 -0.1790619231214447 0.18661620024867545 -0.22266262840416232 -0.23131738918117697 -0.2686092722698322 0.12283465463261727 -0.1551326220172603 -0.2616116056519856 0.10417768208412079 -0.1734589257595457 -0.2876753593038898 -0.20956328016587514 0.08219863327585282 -0.19123300646752492 -0.2870841157138835 0.16714021543801305 -0.2055792152464284 -0.2211365731326959 -0.22118838993241632 0.17179181122041007 -0.23946688380512895 -0.1896164850082143 0.058260160442993564 0.09748399554703693 0.06312891015793132 0.06774169238624919 -0.033978078676379975 -0.20425528027882256 -0.18017220216115565 -0.14874560170188017 -0.21620941969889276 -0.20080533392513777 -0.22124115514198672 -0.16040186561724043 0.0810382021803283
0.10576970539048924 0.11204911056587279 0.15963466907529572 0.15143142824958059 0.0968516970409171 0.12383837786401085 0.1576467582069316 0.04324741940064791 -0.1442278619278961 -0.0910116774712269 -0.18001824812341308 -0.06942458423239789 -0.13023496758670222 0.1156931776300327 0.12262864059313582 -0.03652630516673054 -0.01893210135519408 0.14961741341903226 -0.011683142766830785 0.01434938419873629 0.11591954131859164 0.14566520294060487 -0.13236897829903504 0.1460126558384855 0.09195566960412237 0.06472548426376837 -0.1285063836835422 0.15149577120938018 0.02837969837272688 0.04894955062379638 0.1492509058539865 0.133160583827576 0.09233920946265879 -0.019983673071083435 0.002991363534866599 -0.07207491821667715 -0.3392804130932895 -0.10104096368685868 -0.16550860814548293 -0.12348466550754024 -0.1757163510753217 -0.024579845167027083 0.0702507537008482 0.11998635892886975 0.1475759110582492 0.13305903400457314 0.12637354304100512 0.09110210680109401 0.031260774974419724
0.05762358282962367 -0.006549041879802831 0.07067045344992129 0.06279382337848792 0.019606328800085403 0.033818418692717706 0.033736534995582705 0.029039133312923827 0.07468907467639437 0.23599612242545753 0.4998333867443248 0.25162909223059704 -0.006983143537363658 0.02669207428859728 -0.06771159135730118 0.26965905205778967 0.26969863301070157 -0.011984214678440706 0.33068055768592547 0.2512668468109372 -0.017909742769891653 0.10318106456896337 0.5088516131091645 0.02516807838906459 0.08203047814925038 0.016437289152201932 0.5034763655342573 0.1078166074506022 0.30863352069286126 0.3316333052556166 0.03040568142973729 0.06931143918383627 0.07160518342011436 0.22011384597385003 0.3220578700246507 0.33407285441154905 0.3320466988352959 0.5132619499849496 0.4506047365119483 0.5127736500704692 0.34098422398125877 0.2715568679251027 0.07768711356163116 -0.038768649377188304 -0.01589769310883929 -0.023174589709178038 0.030099534317065493 0.05598836226465317 0.07329801524663217
0.9675819066445176 -0.6919069182707649 -0.5730295392528839 -0.7224297659396536 1.6645380864470736 0.15300150472331794 0.13930488078201014 0.18723262360175352 -0.34738383619981095 -0.3199429504252278
-0.5289875247099874 -1.0196042155909333 -0.7126910235701099 -0.6674197396064199 0.3753713214367568 -0.6554013080588191 -0.9248027133683511 -0.844113409544044 -0.038336147058814454 1.2081019825993387
-0.18933538257415633 -0.6127065540757585 0.08809046397910142 -0.08836445417794159 1.0699410419234492 0.1408467037291239 0.30185455130018685 0.7395482238529294 -0.7732185876578005 -0.9527113652355669
-0.1984629218447792 -0.5178440565013243 0.2213993713549364 -0.010330363788008763 0.9234530160131411 0.24962612675761897 0.5058229366311702 0.9242325757620684 -0.9189096383001877 -1.2773019199770623
-0.1739737083113164 -0.7650016360033062 -0.020217672797109 -0.17928166149331626 1.106213282185615 0.005586630773069927 0.12311873712520555 0.48698258360762336 -0.5935743856473241 -0.5285637435561045
1.8710387107413342 -1.4500703456824608 1.1614451876003054 1.2837775313498856 0.9114557385209119
0.17742714336061638 -1.0589867223270253 1.676166681538436 1.9192634453937603 1.3085746815851422
1.158730700166445 3.4696414161239626 -0.16543710661785477 -0.6115442180204587 0.3767109282295873