-0.36143008298469004 -0.3725797060506895 -0.3246496580075604 -0.36596134535799757 -0.3037263631993523 -0.3539724347853408 -0.39697398968625575 -0.3666038337720505 0.03124413281390321 -0.055924253165640876 0.1869261362517023 -0.0534939589526253 -0.030625161046021355 -0.3679146665155951 -0.34616096635424176 -0.09305240921115712 -0.0422173142559359 -0.3737553447232391 -0.055399540375688616 -0.13037574245893957 -0.3292390293151012 -0.421128487842814 0.21947035845060872 -0.34629185147875297 -0.43158869727907406 -0.39272989803087444 0.2318260504203138 -0.3596044609685214 -0.06443273545702993 -0.14722223750679128 -0.362854535757213 -0.36893678659332274 -0.3773047322390628 -0.07037464363253365 -0.030568771439811335 -0.0064786757837030605 0.36362311654767204 0.17929747848123798 0.23295031594411475 0.2066903269051197 0.34574293014472507 -0.008642951681431154 -0.34624598368072346 -0.3421239197670976 -0.35087365904621975 -0.38271180497627716 -0.43424900851226095 -0.33925614872848975 0.04278274738613866
0.02790953996571323 0.052285763547129376 0.004436517353588395 0.0011994678114262951 0.004920917193811547 0.033648926692865545 0.04776577137467967 -0.008566595715227285 0.2725401225405161 0.0661648964991758 -0.04082157228786368 0.10881371608207359 0.32721098905214024 -0.027344571814038172 0.07528749438768705 0.11529630186610484 -0.11068260546678826 0.031072186938773966 -0.09004212606812872 0.060451194767220925 0.062062715445795884 -0.058482460116625425 -0.03059615085505057 -0.0025995138171455673 0.03459272627409448 0.020618939067872547 0.0015347351155646412 0.019383128476974803 -0.13483618434659567 0.07133306159187863 0.01923488375435387 0.04005055806961995 0.01462822846783369 0.11775525957202725 -0.1190106378858064 -0.05650694079142709 0.1518156013070481 -0.010114981350939915 -0.012703883283854136 -0.03011946037380477 0.16212634613583943 -0.08758437916006592 0.04105931499838844 -0.031925103646264684 0.024041747777333127 0.06536995887830307 0.03320295066656995 0.009650070574989308 0.010172454564050061
0.32516491449779433 0.28115644451829697 0.3214762034142573 0.3053285615696994 0.2830903857408426 0.25061126692363134 0.28467535053198134 0.25605945271836966 -0.12329973084705992 -0.14460929246691073 -0.03599871852860203 -0.15795220949083805 -0.13324840167435387 0.25709326931444565 0.2841114203290758 -0.0788534427766323 0.26157297398084856 0.2915041032369272 0.26333621941705 -0.05197212347771664 0.27175741558090405 0.32163430958339306 -0.06617769751103936 0.2529989811924641 0.3026741226805617 0.2765417561143903 -0.11578959117900155 0.2938309034674674 0.28030633250025727 -0.05924136593292201 0.2914999126813648 0.31598985770097504 0.2785599005847971 -0.11726158470205475 0.2907801745780722 0.2113665841401939 -0.07481515951777432 0.00880497083918386 -0.13997400110227207 -0.04445663228172465 0.03764131475032744 0.2566237375719983 0.26269639485934976 0.2974216142382966 0.28073219883190104 0.2597922876396992 0.2908988620412056 0.31904358671856814 0.09941530547944312
0.010008159730746511 -0.011795215382877932 -0.07855006866241239 -0.023540142590391253 -0.023388454106262994 -0.006057067966283216 -0.05165748769041311 -0.06036036219193857 0.2655194759029268 0.19468695748484927 -0.006968525002630161 0.26887488516026387 0.26221633256059557 -0.08123229837971543 -0.061576650315793055 0.23092595546449032 -0.20268611587597235 -0.07953490527573483 -0.2373093847890482 0.26412738710176265 -0.037585322654145235 -0.04711723958199934 0.024679351006624908 -0.03591545266370771 -0.04242109233318583 -0.019307560348833297 -0.04596362265412166 -0.05583265724678939 -0.24370363122672006 0.16533932244104316 -0.05858873479542057 -0.015607119050583606 -0.018712029822902442 0.217533755515332 -0.20443803043154274 -0.26095481655174124 0.03308960298208179 -0.046463082838058424 -0.039742712144735536 0.040464915109117934 0.03431832161614601 -0.19784128025174252 0.005517330765782396 -0.04458574986037732 0.007636082188087451 -0.017694583611650844 -0.0608880226375923 0.018078755540064082 0.09404550388127997
-0.030709384389236878 -0.012326809161237389 -0.0716031540510859 -0.09939215738152571 -0.05507573236294279 -0.07701250073639164 -0.01980478953189851 -0.03124329184441329 0.4935162929670937 0.002638392369790102 -0.14725317427147785 -0.022044473487747154 0.49969189532237324 -0.027828346341592973 0.016606057363708005 0.04467574317845433 -0.16149892065432267 -0.08834015650091133 -0.14848629039486666 -0.01241415134259399 -0.012101489886323391 -0.07251059118714832 -0.08262086717626081 -0.05189247690170139 -0.07960904714687402 -0.05210576094702231 -0.12713482603240484 -0.027089744323555324 -0.16335497249782518 -0.029068006769543082 -0.02017263604666398 0.004989194647760857 -0.0715072637742415 0.006712380817591266 -0.11797050849355945 -0.1241799837187693 0.4047030392031672 -0.07498369908026914 -0.10700909665647877 -0.04782253201731723 0.3386467813894607 -0.09092560344523942 -0.0893542518051986 -0.016489389387692018 -0.03078235628790522 -0.05615497735888723 -0.0989511116432951 -0.0345529373565285 0.03788688299621332
0.008331566193095179 -0.013779546555384995 0.05161915917482988 0.0615686044250567 0.01982425895275718 0.022894350049477773 0.06528218801724758 -0.0071845108973171215 0.23076414706552037 0.2675976842278292 -0.05386916524848488 0.2997182158224326 0.23717482514829996 0.008845236087864038 0.02988487831508554 0.3450990105722221 -0.2473390291618352 -0.010331062273473345 -0.2833850326935975 0.2548801142232881 0.065795648154851 0.04743253482473053 -0.04664106718501833 0.038658243231243374 -0.03926982538868344 0.05097180289153861 0.033262849019882884 0.03517262286146437 -0.22802623670071792 0.33671799850792306 0.019002365995614154 0.044868863480341685 0.02499594713390597 0.32258755387748456 -0.2559748727719432 -0.25948509373483786 -0.031968011785474995 -0.04999880143800995 -0.008690561265721116 0.026089106658669894 -0.10379996911296867 -0.27709918265755823 0.03825488515221209 0.0328165519957869 0.0596956278249077 -2.630652806911273E-4 0.01827756425116291 0.0750429439161425 0.04674832475690496
-0.013620218211573573 -0.05764098773220483 -0.058585418357066585 -0.0530964087818552 0.030508237294543467 0.02986951580863175 -0.012662231288622695 -0.06476518738394728 0.24265535511226402 0.20755987168653264 -0.025233773146966006 0.174192980905233 0.2197766886010126 -0.019067872845658942 -0.05401543590556341 0.20272905362169374 -0.16538553030880976 0.012044857607998841 -0.20590942962275527 0.201706330170675 -0.03789796913187517 -0.10862947106609104 -0.00896493976089443 -0.08679160191304135 -0.08426015477550555 -0.0737382221831956 0.018760927338148936 -0.06965880234213424 -0.22728974726064655 0.1733096863104816 -0.009320335235577166 0.03279098590211594 -0.02519965052070941 0.18943952840895767 -0.2251091337140999 -0.20346134300477245 0.06648212008664055 0.025591241768918072 0.01781144418287031 0.015179389360153159 0.06363484231815862 -0.16565755055618972 -0.06975623768863988 -0.0030997375394353054 -0.048570308268737344 0.02204839979928563 -0.08704303538678776 0.004926904270945028 0.036618000077835514
0.05712064114554365 0.014911541084221502 -5.159378442391694E-4 0.03544552632406507 -0.008454185796533021 0.036164135081554555 0.0684325598703657 0.049513106375567675 0.12960414815406016 0.04803812987549855 0.14512446740971996 0.04686144703093686 0.11143373750358676 0.04976161505607534 0.02419618142349951 0.11498662090902503 0.11637330893256247 0.07731111199410562 0.12675320863551903 0.0480969343965466 0.06397102259742699 0.023372732663665248 0.1662531709159838 0.032806921767265844 -0.026003518748138013 0.03043698071072474 0.19385044993756928 0.008508645947002482 0.18783735567348792 0.053074264499998094 -0.003582577916534053 0.0078022638883204435 0.012744996530372584 0.07704875758415143 0.10498305895582022 0.19197106747051612 0.24682407032865325 0.15089108519942823 0.19042943478379082 0.20828734268151225 0.3332541258938496 0.14824679625774562 0.011983516723910709 0.054999117070068854 -0.0031834761374088124 -0.02626640059734358 0.038151419236812104 -0.004613141517291807 0.09604345088244035
-0.18271704339897726 -0.11749305538410236 -0.1494202456089906 -0.16181802005360596 -0.15028155242308164 -0.17104274952804174 -0.1291530968335693 -0.09933822035577564 0.21634478041946953 0.006424021955158203 0.061397549881528464 0.035756367752031004 0.16169826475008053 -0.1776901064662535 -0.13575886919001326 -0.008122494189148188 -0.0752080513182032 -0.1501604855721738 -0.04767260077029729 -0.014494302437672156 -0.12203655261401335 -0.15255337878819747 0.07299412354192511 -0.14156921989056673 -0.12948486372265203 -0.17674720912363898 0.06689518202313996 -0.11683401212626382 -0.02487692675992194 -0.03137575747710764 -0.10464977580812433 -0.08871624496679482 -0.18003905630252992 -0.007633143585483604 -0.07926021809392597 -0.06806177234133959 0.2838198068497493 0.028823588607004152 0.10195996932813967 0.0671461903271194 0.29416159864775177 -0.07277991142728119 -0.09174677335905249 -0.15525550732387566 -0.11842420599088832 -0.14616705944034827 -0.12235614072709391 -0.1412703351879787 0.09010614659998513
0.024582893645598555 -0.021762338722481647 -0.00202477375717241 -0.05010274021393818 0.017530566933100157 -0.02381838317341041 -0.030583908316267054 -0.0219062170372098 0.1829197926856023 0.28369461630280074 0.007561698197925209 0.3286609735301497 0.22052621705727476 -0.038424442092949124 0.022183579352813544 0.27176534524399537 -0.31540786002259374 -0.03662936346954992 -0.2573629748267891 0.2669110243078016 -0.012149780355327402 -0.033089462313655005 -0.014840837982151436 0.012846358785584638 -0.015850498103705993 -0.064855359199862 -0.008599988339788662 -0.013249406836037021 -0.27307405531804646 0.31086376158132556 -0.027227412203685002 -0.03596696845612672 -0.011465854656994779 0.28500435070019403 -0.26730490296228937 -0.28264968382994093 -0.08865312760142992 -0.02974707667868612 0.010321980981187813 0.029547025769105697 -0.07339981040126228 -0.2751564065123941 -0.00843450820850803 -0.009816620559163955 -0.051168339901321205 -0.05443918671663732 -0.02355095174237299 0.02044371059361864 0.04535147471513548
0.03240943936965722 0.09469506767279329 0.10882976226117333 0.0569769288773494 0.12779800813750286 0.10495214015701877 0.10157846978408187 0.06115876412191747 0.32209310119673934 -0.004478946775746585 -0.16833366760124305 0.023495526985506287 0.32393092341688123 0.11490544379989408 0.08088485509173392 0.008281937350514655 -0.09715248495995074 0.04345405007425705 -0.09276849169981864 0.04962105684886751 0.08677696169810466 0.09579699490590857 -0.1699021244605262 0.04592501002621116 0.031191853199619635 0.11009642407343895 -0.1435885998383836 0.08614036003737979 -0.08892109231664574 0.059542411029256975 0.09095258069819794 0.07255014796402466 0.05058533360945674 -0.011532642675972383 -0.061179125399900385 -0.06346922438026721 0.17022678244443493 -0.16775782551483004 -0.20423098078078353 -0.15119604691154845 0.11462721134514338 -0.09770840478632699 0.127257110023018 0.026868987115740886 0.10731187666193545 0.13412731758326923 0.02409960381899082 0.03392655502805736 0.02407999850724184
-0.06122047124572658 -0.06552000583852682 -0.05540635224435833 -0.11573633316665069 -0.06418115795291966 -0.03739877714836951 -0.12140291078168662 -0.07451645651543519 0.18692840170705838 0.30551876079593887 0.019358468546103347 0.3101436092236628 0.1499770117616176 -0.07183353189218457 -0.0697771519681842 0.26121265314799114 -0.23635755136787306 -0.11583200110854529 -0.29851682851625044 0.27050551899249103 -0.010501685418879744 -0.12924615702014713 -0.010275123521948017 -0.03653800791294634 -0.09537587813438793 -0.12419079593615998 0.0019004026686572479 -0.0960557188508636 -0.32133626173454644 0.18380144070182125 -0.03851619505985447 -0.0242944110582921 -0.05921754976964926 0.3087164170263 -0.29749626926659983 -0.2629266686433315 -0.12619164017493398 -0.019137520683832922 -0.014925304696252892 0.038534605840544404 -0.08038079673082851 -0.26177792302741587 -0.070203205999686 -0.028732850321623045 -0.12457510910349616 -0.10178137880644952 -0.1454994917233356 -0.11163479670434895 0.07160304087864296
0.03240247979370036 0.06952695575812172 0.07862472224401519 0.08988173340523548 0.10499671060009098 0.024637039401853918 0.07445393222311876 0.02666633954046551 0.3094255929687701 0.2098627419627067 -0.03299600972672449 0.19465999609322482 0.2666327248157932 0.08209891704108664 0.044982823412642176 0.1810353284884739 -0.17070965979367272 0.05174753167116844 -0.18493109981719225 0.16742379054997977 0.031759420725812115 0.01739525292205184 -0.08283611590879211 0.0677103127928798 0.017594998960030184 0.07378289965533621 -0.02065597944368115 0.01015686623222008 -0.2038948772696387 0.21206875266591282 0.046626979788333744 0.09385563641707007 -0.0024411131025006295 0.19259316821876357 -0.20510216286339486 -0.22541393397982515 -0.03839498171019598 -0.09333946831334215 -0.016279632918485373 -0.06817980403095379 0.015983663553308002 -0.17592514202765058 0.1077794615743509 0.045549169864595444 0.06998846941206247 0.05024154074483468 0.031137665248855872 0.05183282912503714 0.05282382403529599
-0.012846886118730354 0.006068107722116706 0.012052050932086167 -0.021574331150500753 -0.012816478919035635 0.018592235674246296 0.06899133776456422 0.010146743732012842 0.03330050931286301 -0.16778122235297038 0.0054662882334107505 -0.03690001698832097 0.06937753373154715 0.005243580012095987 -0.005008570499807149 -0.07873136830416302 0.1436340844060225 -0.0018361375914325857 0.09623710449785122 -0.1179087604503041 -0.009250950739864903 0.0035675665715833725 -0.023354120368901575 0.03484205815804635 -0.014540360106733725 0.011056411366186665 6.881499965006024E-4 -0.03085270218639109 0.10062964873428482 -0.10201970639159369 0.035653341921500034 5.463858827600661E-4 -6.131025548651476E-4 -0.07550462937576205 0.09736541332808724 0.15202855479536095 0.20644045194157798 -0.01986956750397999 -0.007505393361157143 0.04546104233935065 0.2088576461934355 0.15322106589083997 -0.0059160332196412126 -0.030465282658855845 -0.012382958296251122 -0.012500664400017517 -0.008455915092006805 0.028187113357587373 0.09736738531460615
-0.2262838656564788 -0.24086470367715193 -0.22832102656830436 -0.27294604528059624 -0.2642165172112655 -0.25677438395772517 -0.19117473952545838 -0.27269724459898076 0.054858121943705214 0.16511131514333913 0.016702151307891273 0.23513395877982451 0.014571420801811884 -0.1878269691968277 -0.28408251093015996 0.18943349776585885 -0.33765113055978635 -0.2541750130964341 -0.3588733412340473 0.12666126307509923 -0.24804732610334337 -0.21928656066864838 -0.030862563394485898 -0.24464727026065353 -0.2896818828627328 -0.2710936584058641 0.1569502675013982 -0.25074858155082885 -0.359643572588281 0.05324986629162914 -0.25234196909004664 -0.25494054287389095 -0.2900014487914251 0.15572502060605456 -0.2750808257225683 -0.3187991549487359 -0.11209922451643281 0.053542775476689355 0.056910659633178984 0.09317508987512858 -0.14423316144936102 -0.2969958174429217 -0.19271409634432946 -0.17684858540029533 -0.2520549787733872 -0.23686634866266676 -0.3391146260269477 -0.2250845441054317 0.06331109470220286
0.08300954244090326 0.11292252537753299 0.10454033276382545 0.06871728640517206 0.13905891602237241 0.08721267711902776 0.06379975480435685 0.12826011662563877 0.3344114235850255 0.04933168877266134 -0.19616625340955296 0.07696204998031829 0.32051790424534193 0.05240270518477667 0.11680273784821905 0.11133975727906753 -0.20987548328762176 0.09048447938588305 -0.1434446886563106 0.10346910483798578 0.10886269538992599 0.03256122947633955 -0.152438676233874 0.11454792888584342 0.11282556787182389 0.07736702031475301 -0.15215773223828566 0.08379816604426245 -0.14646982344721313 0.04623825167824707 0.12706154454892032 0.08955802097822373 0.1254663119981351 0.10731288780327673 -0.16759091202543544 -0.13764334497006475 0.09137393883531893 -0.20108667284337503 -0.1488677938726756 -0.22445033187323055 0.09780935100864428 -0.1451424380926957 0.09941684806125621 0.08128374280056647 0.09530966004051215 0.09971006980050158 0.05158744533397998 0.12511288117170005 0.05152233592795805
1.2962570786646483 -0.2367557723083983 -1.0635613842718583 -0.0889317572855442 -0.05806702984031801 -0.328407565724579 -0.08081905464329082 -0.19434416377623454 0.35761689027073 -0.1398208680062796 -0.48737091668839033 0.06914240352205375 -0.33830793413337545 -0.12384394383715194 0.5699266341113536 -0.5689956409597766
-0.3673460897659005 -0.2888036660099222 -2.117847200330403 0.35655272202853716 -0.40774061074637247 0.5333869407866898 0.2277609511116144 -0.9209501347954937 -0.32676155806902557 0.6709425501246401 -0.5017026065244615 0.8831588032027679 0.10213604287521048 -0.9256637737914222 1.3201823330340037 -0.20576219201816687
0.8671297218602529 -0.32050895074529145 0.677977325391866 -0.42904559477218257 -0.5687035044072603 -0.521637022688457 -0.3183058654170549 0.33422102126582176 0.1305743505012446 -0.4584471452763446 -0.5081276260133588 -0.4197060858877148 -0.5073666714007866 0.29316229421036216 -0.17438419333215768 -0.6518564416372357
1.251012189073181 0.035674747528853724 -1.4163431228165613 0.05327240851542564 0.5102376227743141 -0.19833516083711428 0.07836211566421435 -0.10475872282375048 0.5640175322679497 -0.08954239053723773 -0.2468298575006209 0.0697597104876874 -0.26195745195066167 -0.07034135417647785 0.4839349497952012 -0.28952659325219
0.9691607210518958 3.1816265657786453 -0.03148793854438091 0.6900675249825419
1.3027949712822877 1.2941991487194093 -1.3406632136543204 2.1970601340278577
1.5251682668105144 -1.1710339487346535 2.7797326156358655 0.8435156838133148