-0.6086013573218324 -0.6539438689632325 -0.7145976281941073 -0.6323295848916273 -0.6338566639032523 -0.6927576349094122 -0.6480505150558161 -0.6393921738225808 -0.37866396257215446 -0.060380231604063986 0.40276216656958724 -0.038755407612428176 -0.39075657708329387 -0.7575577325350329 -0.5863861665310739 0.0208991857847238 -0.1530905013816271 -0.6026399187902608 -0.1342407051478035 0.01603466671950416 -0.5346182440894635 -0.7209763361994969 0.3208937759497942 -0.6297153532000577 -0.7133304230090598 -0.706762934874782 0.30934417431397093 -0.7051969777671178 -0.2184622581562406 -0.03802017721606495 -0.6474616794502458 -0.6311468469091746 -0.7144236334931883 0.021300066951550706 -0.11735632800795687 -0.13392020794501502 0.14099683731847398 0.23342905138909506 0.30542075027093546 0.31014027009700407 0.10666077212039606 -0.16368995374772408 -0.6647561478187005 -0.5846354552112424 -0.6332853691259938 -0.6951399556513577 -0.7093910238598813 -0.6786314951269654 0.016659315976328037
-0.025885505256428132 0.13612513143679586 0.041025716051856585 0.07743097743949683 -0.0315487100061928 0.0013733432510700011 0.025520091094604826 -0.012066856562235936 0.3242033136416585 0.6967348792641569 0.2600756439095363 0.7721724590425559 0.35854733161763347 0.011287046616903483 -0.0045507803107356585 0.6779571387188118 -0.4758699091660831 0.016365462304049113 -0.4147845403034947 0.6697117797536842 0.02951168389509138 0.027182760862476566 0.20093291107863143 0.01365676562586409 0.0024748375472598816 0.013521084337589858 0.18257717294977566 0.09239754577523317 -0.38808817341520163 0.6942325927839835 -0.021537242515605275 0.03762277278577029 0.0480540474790935 0.6973657883642287 -0.29732447300312204 -0.4120310693674569 -0.07421872834807894 0.14550204667741176 0.1801397572108437 0.21536431794330943 -0.2276573627326302 -0.40719007142697605 0.023302714354580558 0.040710195915558106 0.0011371912866548525 0.0026450762813360557 2.557427631199111E-4 0.07526853676200788 0.007898235692066814
-0.25221916259856714 -0.31138074004355404 -0.30322018191266503 -0.3426668732782249 -0.24782567097494837 -0.38867854021277876 -0.2783256615760583 -0.3927483152484875 -0.13781747446906384 0.33379940719454 -0.14387228422882745 0.3282979746425135 -0.13454943271404116 -0.30576858517928773 -0.319955745355662 0.3020808254553582 -0.5476352822350811 -0.32720476972576273 -0.6213242757545018 0.2458341516148441 -0.2939222357884641 -0.33634423697268234 -0.12379304606553336 -0.29420322968503365 -0.32217888609639883 -0.42560568860128456 -0.04462542466116225 -0.24071294756496608 -0.4941294617442615 0.2050090224951781 -0.3299925235071022 -0.26765018570265414 -0.3584807110100575 0.33115500116319907 -0.48404662472688065 -0.5070888662974521 -0.37137792437085587 -0.2024403566479107 -0.054411829445433095 -0.09944800020248548 -0.43086911415394513 -0.4815755544937141 -0.2493245621726673 -0.19851785534787383 -0.300259749663323 -0.3274295465685949 -0.40679544272600177 -0.25115241792664994 0.0013091100449637684
-0.2952833081859035 -0.39548149338170985 -0.35943651414366123 -0.3545278808512937 -0.35926524161561946 -0.434212617346679 -0.3450404755451198 -0.4557366691943952 -0.3755539075945227 0.21118322407650852 -0.12168820862413639 0.3119499058423639 -0.3661287966450347 -0.3378776609392363 -0.33789472026630235 0.15234848804041246 -0.5472448501623456 -0.374649512847305 -0.6372110231250513 0.18637380374208626 -0.3081443737451817 -0.33003529157739525 -0.12615338273235943 -0.36024038193369995 -0.4086277902318207 -0.522414419353699 -0.0027658569041895172 -0.32625726389075066 -0.525471897889077 0.11279354019710137 -0.3890739599590618 -0.30390617001879733 -0.40646578536905764 0.2057533096761665 -0.4935612236285905 -0.5855742436288925 -0.5729314580090488 -0.1110987404101822 0.023633280890471623 -0.0014902701510725851 -0.5541945619494887 -0.4236138600022367 -0.31932548309997494 -0.28937122689803524 -0.38310876929680004 -0.4064986510621416 -0.48581665000065727 -0.3528733945634536 0.09668869043352862
-0.3476102854716425 -0.23313001208994436 -0.3815583306646886 -0.3671652499894853 -0.32349093696973713 -0.2945116119078456 -0.3490519386452574 -0.254982950842215 -0.10554812762047927 0.07208765731129298 0.24031951618547157 0.01891628257617702 -0.07530453509636965 -0.48528257808048114 -0.2430045043437046 0.034717750328360206 -0.1581255813334523 -0.2471708417798269 -0.12472183339895766 -0.09344506173798026 -0.24892219273101815 -0.47579950455355136 0.3161844640670538 -0.3325075409492247 -0.446381903242546 -0.33042614803183634 0.2938489012802853 -0.3669632232909274 -0.2254134302240941 0.0638504365960152 -0.2941453796323659 -0.3634583862259097 -0.43417951026130935 0.04720971399781748 -0.08875758227331924 -0.04634679819831369 -0.07653478812571766 0.2784410400705468 0.2893026375906755 0.3036252336516526 -0.26208609140378764 -0.09145599152343512 -0.3631119471355664 -0.3048050358340041 -0.22502508058981857 -0.29649753790200006 -0.25886650187879173 -0.35051619040283005 0.04135898725377938
0.129342489516908 0.0688879798300462 0.04895928974384944 0.14598794935748188 0.12171221267447835 0.09489187497653034 0.09326769994756666 0.12494938471955176 0.17528726750866763 0.05826443155909748 -0.29885426143248967 0.04016658070657155 0.14381045854110247 0.024914526469549295 0.1458400150142923 0.1749467600080452 -0.14379869306414444 0.10854095553370142 -0.1404633240829112 0.1730024422982533 0.1909875482693323 0.04903595557843068 -0.34837571582776644 0.06042804308704664 0.08333502176505048 0.12210782727953524 -0.38194793156643775 0.04794642431855163 -0.2473348523600318 0.1334927066983262 0.12042703863533623 0.1538699666052979 0.06136917221065568 0.12147788952168184 -0.14552173821763248 -0.19534293667527736 -0.306442715718464 -0.4342282957606848 -0.39946479678713653 -0.39034149951815456 -0.23696523758814547 -0.24054189940721862 0.1265375996878368 0.15581832920390118 0.12180406094099865 0.09198625927066964 0.05042743622050632 0.06129681196128943 0.008192273286818985
-0.0922661479685579 -0.059967531342080965 -0.06065171472736355 -0.09026681712384621 -0.11051606041739963 -0.11949352363273731 -0.045994591558956376 -0.09797387657280242 -0.10242079108075165 0.0011492792550133594 -0.20477125665081944 0.10466508316127182 -0.1345098563178336 -0.154192152374335 -0.07118885613447695 0.09964465368264483 -0.2926659695260339 -0.04896390966642451 -0.33643092777889455 0.0906101469528943 -0.02025247781405545 -0.07831488806034707 -0.24679542778346011 -0.04909414011417977 -0.09391472242738386 -0.14044134500662048 -0.1573941653435285 -0.08344965578029413 -0.35947313354313265 0.11471235765847164 -0.07795174189271738 -0.10511030353405003 -0.1176011683468538 0.1357068359159987 -0.32675470901593706 -0.2398037328568777 -0.46827861464922477 -0.26379157810779547 -0.23588065727858468 -0.23212369097531746 -0.4613655871266619 -0.25040826238016856 -0.0582132097564067 -0.044613803866723235 -0.09636076711133143 -0.1415926630767059 -0.13758622879883725 -0.09591732944502303 0.029569047640992375
0.06810862527444922 0.11193096480052851 0.07779943597757051 0.07854103931996026 0.06673205042759904 0.11096942257326553 0.05981838000985383 0.11622197619929692 0.10336746110009515 -0.27734633467697595 0.07330633528049829 -0.30885182838401454 0.009701621617627974 0.040612048360171175 0.0956940901634762 -0.2741987229075868 0.36125604771759223 0.09194006703805492 0.4001582400206531 -0.3149367385522225 0.07417225136700487 0.053418164457334084 0.12304347625546316 0.06747405865014235 0.0684877178135727 0.11917174161125918 0.0746555091155526 0.06657562478377903 0.34849789656118413 -0.23552133882153647 0.09368688354322216 0.05807165562313316 0.07463753997145856 -0.3022334765776859 0.36537074022350485 0.385266978428961 0.13706412856013386 0.14649303828983867 0.07429122234189946 0.09117516564223625 0.09808666274046528 0.3607098507950285 0.05584127093165161 0.04129280499133065 0.11259112148083382 0.11391328110463758 0.1281587790647176 0.06876794916960394 0.08795066127981326
-0.30764086643593963 -0.36023511607850073 -0.4259767266651843 -0.41170294452862183 -0.3046696361097825 -0.461309398299415 -0.32224755210063627 -0.46140632783818 -0.3699422496085337 0.2403285569014288 -0.1061863337002425 0.2876179143513078 -0.39534282180849534 -0.34977362389097877 -0.41868229564059734 0.19420910172480854 -0.6438855661667391 -0.43775368331702497 -0.5974130727403589 0.22696278848398274 -0.30878510410652166 -0.38568959575194545 -0.08310707314197312 -0.3408397773314296 -0.3890437568066373 -0.5459269835375362 0.03554559030050729 -0.39509974903542006 -0.5649103828238747 0.11313902597371689 -0.38934605089843266 -0.32336251944130523 -0.3535574561710568 0.27695122822356255 -0.4993647651582126 -0.6046239023942376 -0.5940828056435795 -0.20322456921604112 -0.014488859285754652 -0.05437278978256076 -0.5452476835425799 -0.4991491825197233 -0.3967676680377343 -0.3194352235646105 -0.3851495522478309 -0.44686422201009307 -0.45939918246480815 -0.30963895371026584 0.08535454892416339
0.56069532171848 -0.4063231075596564 0.17631630081261515 0.5461196698925628 0.5958950071012663 -0.6373182031774564 -0.3128102445120454 -3.3492135339451212 0.5752153714592528
-0.348934061390512 0.9631096002627682 0.0027880693826178395 0.3476110589636431 0.7925871970556669 0.46658230219890073 0.09103462135963371 -2.4379521932541084 0.45893035937426624
1.910273287293372 -1.2804675724111432 0.3488414778708523 0.37900822791454547 0.4506298585048424 -1.8460423833490403 -1.134023981370824 -3.241367967437813 0.4301760691306878
2.0647444722144694 -1.3438752305240482 0.2474784646783235 0.23382039932928247 0.5400662741642398 -1.8894192428371226 -1.1105804333124092 -2.6366148580247586 0.3446570923396369
0.5942879425806679 -1.028124730846883 0.8038931010305895 1.138278478629119 -0.607620459536565 0.020561801055222702 0.6976776057884948 1.046792878569438 1.176571642314338
-1.0538209221169064 -2.6399098797405007 0.9367163069424099 1.5870502507636097 0.6989772983353856
1.4515159032718417 -0.13564417233158563 2.0479109146082473 1.7017875917496952 -1.5545317284776392
0.9124298410385656 0.27975347444035215 1.7328535318992262 1.2975508923831427 -3.7437031819429
-1.2128225863020006 3.258782184391094 2.162247362010482
-0.8527197488503994 1.9928384926625862 4.435514538150661
5.070004503804362 -0.44055603433400803 -0.7497359843495196